solver_type L2R_L2LOSS_SVC_DUAL
nr_class 2
label 1 -1
nr_feature 177
bias -1
w
-9.47667708517775 
-32.81739677019331 
-0.4832384188182277 
-15.71374298116438 
13.37755126437483 
-23.06052100163454 
-44.9867675382432 
10.26931107581895 
4.604733706173604 
-39.26058196812979 
-4.699495482452966 
14.88116451883324 
-5.980574694907064 
-9.166133645076311 
-4.871872825862514 
4.392327289141993 
7.067412821361845 
13.5853198960148 
4.150944337851119 
-6.360302866138422 
8.460091271573996 
18.22112387167528 
22.6884310528081 
13.70671814468098 
10.04767240246702 
-40.88788171227083 
0.1167033419282416 
23.01422044271094 
53.25807372383029 
-2.315188967225892 
-26.80067123975392 
-14.52166488336794 
16.94792541166991 
-19.45401564283783 
-32.81868081743317 
19.01063178733683 
-9.886020385902249 
15.82981511461073 
-3.604368772698215 
-21.58757674884979 
-49.04893613851852 
-10.41052185522517 
-30.13682050066397 
-30.06979322013073 
-3.488060070011499 
-12.07737287246644 
-43.3250271603054 
18.20869264707297 
11.14846670475504 
19.02621574008963 
17.58419034477351 
3.766928845430739 
27.42245444608281 
-6.825964602754066 
48.15604513191619 
53.24751428250966 
19.60086197157224 
-5.224235109834932 
11.00651579241647 
21.23781126309972 
-1.536853418660729 
1.789438971025064 
-6.413496988038887 
13.35190907365729 
-3.742278672798794 
-6.946637172993655 
2.395518248728619 
1.772327424683406 
2.340179843801914 
-29.46254709475089 
0.7419946004942349 
-2.17864350054106 
-3.235145491448932 
-2.971252728846766 
-10.67609945475567 
1.996836457149488 
-5.270240013580452 
2.156967199888962 
-11.36437495362143 
5.647039077451013 
-5.810613370263149 
17.3125476963433 
22.04721143750525 
-3.567359081861134 
10.84834438554518 
-13.51764397699027 
-5.779987804497102 
4.550989603339656 
4.775283578436293 
-2.134028033329204 
-2.139077080616116 
-1.126927702565245 
-34.65121613975587 
-3.148616498813658 
11.19097565151364 
7.64599056707786 
2.383364748271462 
-1.217839467564793 
7.89339412041153 
-16.10580877928065 
12.04836501287512 
1.019452783060745 
-22.75855853318286 
-12.98173436216973 
-2.603023960231674 
-10.01139539218507 
19.27351008962448 
0.8481284260025617 
10.09127129637102 
19.28002077629425 
-3.649699818991433 
-4.205515738602637 
10.34782477808573 
-19.8460795550071 
-6.080209483504248 
-15.10061398584775 
-7.47750603435222 
6.162278582340265 
2.487917130376134 
-8.517407531004626 
-1.318363674729406 
6.297792956397557 
-2.739116519668595 
16.36994881033441 
0.08689227652993191 
-1.023995608647964 
2.07565431640892 
1.750776810941536 
21.63984446485042 
-4.006199315056356 
-8.709303782405359 
17.01597195903861 
3.19140098322607 
17.90795334678861 
-0.6208198455296754 
-11.72690992588628 
-14.31399711189512 
-6.637438651796145 
-10.11516676136777 
11.94287290232261 
3.821734615493159 
-5.031073869123592 
-13.69241584043833 
-34.35744093625436 
21.61078255872568 
-7.276842204224415 
18.96665765779994 
-2.79009467316564 
1.197674635365952 
-14.71932355141725 
-8.397477527703865 
-10.81292578488919 
0.7704898847929432 
-6.814583433302507 
4.93681951089001 
12.39221920788188 
11.22987786583641 
-5.682158028889225 
-25.11761788352355 
-17.3386569148283 
-3.849353743115615 
1.68928039107763 
-5.988472015937673 
1.408529969464078 
-10.14623858873372 
-16.36070326504117 
15.70384632240823 
-0.03351771492185725 
6.904535923900939 
-11.18156280876275 
-0.7844817866405497 
-2.045922453367228 
-6.197525349104919 
16.52767123747905 
-11.14847506662085 
8.268637724729178 
6.737750108369465 
